svm_type c_svc
kernel_type rbf
gamma 0.5
nr_class 2
total_sv 4
rho -0.11667854591241868
label 1 2
nr_sv 2 2
SV
0.8162325095269027 1:171.0 2:65.0 
0.8168089321689848 1:173.0 2:66.0 
-0.8162325095269027 1:156.0 2:45.0 
-0.8168089321689848 1:157.0 2:46.0 
